//Numpy array shape [768]
//Min -0.362060546875
//Max 0.274902343750
//Number of zeros 0

#ifndef B4_H_
#define B4_H_

#ifndef __SYNTHESIS__
fc2_bias_t b4[768];
#else
fc2_bias_t b4[768] = {-0.0028095245, 0.0130462646, 0.0006828308, 0.0000820756, 0.0024185181, 0.0034599304, -0.0044670105, 0.0050277710, 0.0025768280, 0.0004105568, 0.0030364990, -0.0005497932, 0.0053138733, -0.0047492981, 0.0011310577, -0.0042610168, -0.0024986267, 0.0018682480, 0.0022907257, -0.0004799366, -0.3620605469, 0.0016822815, -0.0011034012, -0.0035095215, 0.0030937195, 0.0015954971, -0.0004568100, 0.0000034571, -0.0042266846, 0.0009107590, 0.0031509399, 0.0013227463, 0.0023193359, -0.0041923523, 0.0021686554, 0.0008440018, -0.0101089478, 0.0025405884, -0.0014238358, 0.0019855499, 0.0038623810, 0.0029239655, -0.0036506653, 0.0002247095, 0.0018301010, -0.0039405823, -0.0007314682, -0.0002570152, 0.0041465759, 0.0028076172, -0.0017185211, 0.0013093948, 0.0002237558, 0.0026073456, 0.0000434518, -0.0019588470, 0.0065345764, 0.0010557175, 0.0036983490, -0.0027828217, -0.0051994324, 0.0008192062, 0.0014781952, 0.0022315979, 0.0032272339, -0.0004158020, -0.0049285889, 0.0023365021, -0.0002377033, 0.0019893646, 0.0030498505, 0.0030841827, 0.0004391670, -0.0044898987, 0.0123291016, -0.0012845993, -0.0010538101, -0.0018577576, -0.0002353191, 0.0019321442, 0.0014848709, 0.0021133423, 0.0024681091, 0.0011014938, 0.0004408360, 0.0000236630, -0.0016336441, 0.0020046234, -0.0016670227, 0.0023384094, 0.0019073486, 0.0013685226, 0.0011692047, -0.0015563965, 0.0100784302, 0.0016613007, 0.0077743530, -0.0007500648, -0.0014829636, 0.0038909912, -0.0012397766, 0.0042991638, 0.0009083748, 0.0022354126, -0.0026092529, -0.0013418198, -0.0006260872, -0.0019760132, -0.0008788109, 0.0000326037, 0.0031051636, 0.0010824203, -0.0016021729, -0.0015459061, -0.0121459961, 0.0010824203, -0.0009660721, 0.0004055500, -0.0035095215, 0.0446777344, -0.0025272369, 0.0025882721, -0.0023689270, 0.0009255409, -0.0033245087, 0.0013875961, 0.0015420914, 0.0027942657, -0.0032367706, 0.0014295578, -0.0059051514, 0.0036468506, 0.0005669594, -0.0010347366, 0.0022754669, 0.0044059753, -0.0015668869, -0.0006666183, -0.0014505386, 0.0049972534, -0.0006456375, -0.0008239746, -0.0040321350, 0.0009465218, -0.0011672974, -0.0014629364, -0.0028743744, -0.0032024384, 0.0025825500, 0.0004930496, 0.0005922318, 0.0037918091, 0.0025463104, -0.0058975220, 0.0007467270, 0.0006365776, 0.0049781799, 0.0015773773, 0.0006747246, 0.0021648407, 0.0023803711, 0.0002751350, 0.0064277649, 0.0001324415, -0.0006051064, 0.0058555603, 0.0049057007, 0.0018701553, 0.0066757202, 0.0030155182, 0.0001456738, -0.0074844360, -0.0008273125, 0.0033721924, -0.0265350342, 0.0020256042, -0.0032119751, -0.0000948310, -0.0000196695, 0.0027427673, -0.0001313686, -0.0024852753, -0.0044670105, 0.0023574829, 0.0019521713, 0.0012397766, -0.0014467239, 0.0043563843, 0.0027866364, 0.0006546974, -0.0031337738, -0.0006227493, 0.0047264099, 0.0063018799, 0.0030899048, 0.0021858215, 0.0006742477, 0.0001893044, -0.0006318092, 0.0020694733, 0.0027198792, 0.0016708374, -0.0037899017, 0.0045318604, 0.0001444817, -0.0028686523, 0.0007658005, 0.0090408325, 0.0005478859, 0.0010204315, 0.0019664764, -0.0001019835, -0.0028800964, 0.0044021606, -0.0018997192, -0.0014734268, -0.0007905960, -0.0023078918, 0.0021228790, 0.0021800995, -0.0011253357, -0.0022964478, -0.0000288486, 0.0084915161, 0.0036582947, 0.0019893646, -0.0030097961, -0.0009140968, 0.0007486343, -0.0013141632, -0.0016231537, -0.0010948181, 0.0004560947, -0.0005340576, -0.0030288696, -0.0038681030, 0.0045394897, -0.0002856255, -0.0033111572, -0.0014905930, -0.0002765656, -0.0019664764, 0.0012550354, -0.0011148453, -0.0019741058, -0.0006766319, 0.0041847229, 0.0028915405, -0.0010986328, -0.0034179688, 0.0021514893, -0.0014696121, 0.0013332367, -0.0020885468, -0.0051307678, -0.0020694733, 0.0012807846, 0.0017757416, -0.0019969940, 0.0008139610, -0.0002641678, -0.0017805099, -0.0006003380, 0.0017166138, -0.0012655258, 0.0032463074, -0.0027923584, -0.0030117035, 0.0026760101, 0.0032482147, 0.0036258698, 0.0050239563, -0.0066070557, 0.0000278354, 0.0027389526, -0.0007815361, -0.0014257431, -0.0001044273, 0.0006599426, 0.0028743744, -0.0009946823, 0.0008001328, 0.0000640154, -0.0005841255, -0.0029773712, 0.0037212372, 0.0052032471, -0.0026264191, 0.0020332336, -0.0027084351, 0.0006952286, 0.0009417534, 0.0042152405, 0.0011014938, -0.0052680969, -0.0000390410, -0.0000467896, -0.0017786026, -0.0066490173, 0.0029067993, -0.0018529892, -0.0007843971, 0.0023231506, -0.0035476685, 0.0029163361, -0.0018453598, -0.0010347366, 0.0010004044, -0.0056266785, -0.0021362305, 0.0000857115, -0.0021438599, 0.0005159378, 0.0033035278, 0.0022296906, 0.0009303093, -0.0040206909, -0.0015916824, 0.0020542145, -0.0041427612, 0.0016937256, 0.0004262924, -0.0009164810, 0.0038204193, 0.0048980713, 0.0011062622, -0.0003764629, 0.0038814545, -0.0022201538, -0.0006341934, 0.0070838928, -0.0022640228, 0.0012388229, -0.0024127960, 0.0081787109, -0.0025806427, -0.0022830963, -0.0027599335, 0.0035209656, 0.0019245148, -0.0009741783, -0.0017395020, -0.0037326813, 0.0031623840, -0.0038146973, -0.0017604828, 0.0002977848, 0.0018367767, -0.0012226105, -0.0009436607, -0.0076332092, -0.0011529922, -0.0026779175, -0.0037899017, -0.0083541870, -0.0085601807, 0.0027751923, 0.0013141632, 0.0001211166, -0.0014142990, 0.0042114258, -0.0006184578, -0.0037651062, 0.0032405853, -0.0028686523, 0.0051689148, -0.0000407100, -0.0016469955, 0.0005950928, 0.0040893555, 0.0054550171, 0.0000608563, -0.0001104474, 0.0007147789, -0.0037689209, 0.0067520142, 0.0018854141, 0.0018663406, -0.0052452087, -0.0035343170, 0.0017127991, 0.0001846552, 0.0004968643, 0.0009040833, 0.0035400391, -0.0024242401, -0.0017452240, 0.0007543564, -0.0010662079, 0.0007896423, 0.0016078949, -0.0001907349, -0.0033626556, 0.0028686523, -0.0028896332, -0.0003669262, 0.0030651093, -0.0034694672, 0.0031871796, 0.0020198822, 0.0010232925, -0.0004372597, -0.0006542206, -0.0018033981, -0.0006837845, 0.0011930466, -0.0006260872, 0.0008692741, -0.0026016235, -0.0017633438, 0.0030555725, 0.0028285980, 0.0004234314, 0.0007634163, -0.0028991699, 0.0039749146, 0.0011615753, 0.0009517670, 0.0000139475, 0.0031394958, 0.0008292198, -0.0005469322, -0.0489501953, -0.0021781921, 0.0005464554, 0.0015773773, -0.0017528534, 0.0010843277, -0.0026302338, 0.0015192032, -0.0010528564, -0.0057754517, -0.0000085235, 0.0033969879, -0.0004329681, -0.0003752708, -0.0007472038, -0.0048294067, -0.0026741028, -0.0039062500, 0.0008854866, -0.0006589890, -0.0012702942, 0.0005431175, 0.0023803711, -0.0037174225, 0.0039291382, -0.0005011559, 0.0012655258, 0.0020446777, 0.0029239655, 0.0029869080, 0.0031261444, -0.0026664734, 0.0006227493, 0.0034122467, -0.0047340393, -0.0021972656, 0.0039558411, -0.0057716370, 0.0026702881, 0.0052833557, -0.0045852661, 0.0026302338, -0.0018434525, -0.0025596619, 0.0005602837, 0.0030002594, -0.0053520203, 0.0015077591, -0.0002942085, -0.0012817383, 0.0010728836, 0.0017986298, -0.0058593750, -0.0049018860, -0.0029144287, -0.0031471252, 0.0012760162, 0.0005683899, 0.0029697418, 0.0005273819, -0.0009956360, 0.0004389286, 0.0010051727, 0.0025329590, 0.0054893494, 0.0050086975, -0.0030441284, 0.0004451275, -0.0030460358, -0.0047264099, -0.0045585632, -0.0007748604, 0.0033607483, -0.0035438538, -0.0019121170, 0.0049400330, 0.0001410246, -0.0066337585, -0.0034809113, 0.0003383160, -0.0004179478, 0.0037479401, -0.0040969849, 0.0009126663, -0.0017051697, -0.0017776489, -0.0000398159, -0.0000289679, 0.0021152496, 0.0023536682, -0.0059509277, -0.0002200603, -0.0055122375, -0.0049209595, 0.0033206940, -0.0014991760, 0.0034027100, 0.0033702850, -0.0020771027, 0.0015783310, -0.0002363920, -0.0024471283, -0.0018215179, -0.0001727343, -0.0834960938, 0.0053138733, 0.0003771782, 0.0005555153, 0.0026855469, -0.0018606186, 0.0007781982, -0.0003926754, -0.0013046265, 0.0054969788, 0.0012340546, -0.0004696846, -0.0036830902, -0.0006184578, -0.0001673698, -0.0017738342, -0.0013751984, 0.0081253052, -0.0032806396, 0.0050964355, -0.0024452209, -0.0027618408, 0.0093765259, -0.0001310110, 0.0024604797, -0.0064697266, 0.0015325546, 0.0008082390, 0.0040321350, 0.0025863647, 0.0055694580, -0.0030918121, 0.0064125061, -0.0045890808, 0.0020408630, -0.0028095245, 0.0019149780, 0.0019359589, 0.0004930496, 0.0015640259, -0.0000304580, 0.0016794205, 0.0027904510, 0.0002379417, -0.0042800903, 0.0003092289, -0.0013961792, -0.0051879883, -0.0041389465, -0.0005183220, -0.0007505417, -0.0013523102, -0.0010595322, 0.0010671616, 0.0027446747, 0.0005970001, 0.0023422241, 0.0031547546, -0.0012187958, 0.0008716583, -0.0009207726, -0.0002479553, -0.0117797852, -0.0032901764, -0.0040740967, -0.0044898987, 0.0055351257, 0.0001301765, 0.0012483597, -0.0002045631, -0.0029106140, -0.0006170273, 0.0025367737, -0.0017442703, -0.0062828064, 0.0004537106, 0.0014877319, 0.0006690025, -0.0016050339, 0.0004618168, 0.0026245117, 0.0005979538, 0.0036163330, 0.0052032471, 0.0012159348, -0.0033855438, -0.0004987717, -0.0002002716, -0.0005068779, -0.0020008087, -0.0040550232, 0.0018758774, 0.0064048767, 0.0020942688, -0.0020866394, -0.0009460449, 0.0037174225, -0.0018663406, -0.0007596016, 0.0046958923, -0.0087051392, 0.0006308556, -0.0012845993, -0.0015640259, 0.0006666183, 0.0027828217, -0.0020599365, -0.0004849434, -0.0042610168, -0.0009660721, 0.0061264038, -0.0003707409, -0.0041275024, 0.0012397766, -0.0000352263, 0.0013189316, 0.0002598763, 0.0015592575, -0.0014524460, -0.0003256798, -0.0016841888, 0.0000403523, 0.0004274845, -0.0013666153, 0.0011949539, 0.0035686493, -0.0004308224, 0.0006566048, -0.0022430420, -0.0000685453, 0.0017147064, 0.0015649796, 0.0016813278, -0.0027332306, 0.0051116943, -0.0035381317, -0.0017976761, -0.0027980804, 0.0027389526, 0.0003521442, -0.0004336834, -0.0006203651, -0.0019330978, 0.0033912659, -0.0067062378, -0.0036983490, 0.0022335052, 0.0021648407, 0.0039978027, -0.0008902550, -0.0006113052, -0.0029983521, 0.0015068054, -0.0049972534, -0.0007972717, 0.0011053085, -0.0014724731, 0.0052032471, -0.0003206730, 0.0012874603, -0.0007381439, -0.0000106096, -0.0046463013, 0.0003771782, 0.0021152496, -0.0000233650, 0.0015640259, 0.0021724701, -0.0029907227, 0.0017452240, 0.0006518364, 0.0017786026, -0.0009956360, -0.0067710876, -0.0020656586, 0.0065917969, -0.0017652512, 0.0052452087, -0.0006957054, -0.0028820038, 0.2749023438, 0.0043182373, 0.0036430359, 0.0018682480, 0.0051002502, -0.0003817081, 0.0007390976, -0.0050659180, 0.0014982224, -0.0010967255, -0.0016736984, -0.0008063316, 0.0028667450, 0.0054588318, 0.0000112653, -0.0072593689, -0.0017318726, -0.0011606216, 0.0011663437, 0.0018997192, 0.0056114197, -0.0037651062, -0.0058403015, 0.0020484924, 0.0015201569, 0.0016899109, -0.0040588379, 0.0004434586, -0.0023002625, 0.0011711121, -0.0005469322, -0.0014801025, -0.0020141602, -0.0015153885, -0.0019874573, 0.0001323223, -0.0033550262, 0.0055274963, -0.0027656555, 0.0006947517, -0.0015983582, 0.0010414124, 0.0047874451, -0.0030651093, -0.0025825500, 0.0014400482, 0.0046234131, 0.0069770813, -0.0007882118, -0.0026931763, 0.0002875328, -0.0018262863, 0.0009670258, 0.0011844635, 0.0021324158, -0.0004205704, 0.0021038055, -0.0038414001, -0.0002307892, -0.0066680908, 0.0034408569, -0.0019531250};

#endif

#endif
